<?xml version="1.0" encoding="UTF-8" standalone="yes"?>
<PMML xmlns="http://www.dmg.org/PMML-4_4" xmlns:data="http://jpmml.org/jpmml-model/InlineTable" version="4.4">
	<Header>
		<Application name="SkLearn2PMML package" version="0.123.1"/>
		<Timestamp>2025-10-27T13:20:59Z</Timestamp>
	</Header>
	<MiningBuildTask>
		<Extension name="repr">PMMLPipeline(steps=[('scaler', StandardScaler()),
       ('isolation_forest', IsolationForest(contamination=0.05, n_estimators=200, random_state=42))])</Extension>
	</MiningBuildTask>
	<DataDictionary>
		<DataField name="x1" optype="continuous" dataType="double"/>
		<DataField name="x2" optype="continuous" dataType="double"/>
		<DataField name="x3" optype="continuous" dataType="double"/>
		<DataField name="x4" optype="continuous" dataType="double"/>
		<DataField name="x5" optype="continuous" dataType="double"/>
		<DataField name="x6" optype="continuous" dataType="double"/>
		<DataField name="x7" optype="continuous" dataType="double"/>
	</DataDictionary>
	<MiningModel functionName="regression" algorithmName="sklearn.ensemble._iforest.IsolationForest">
		<MiningSchema>
			<MiningField name="x2"/>
			<MiningField name="x7"/>
			<MiningField name="x5"/>
			<MiningField name="x1"/>
			<MiningField name="x4"/>
			<MiningField name="x6"/>
			<MiningField name="x3"/>
		</MiningSchema>
		<Output>
			<OutputField name="rawAnomalyScore" optype="continuous" dataType="double" isFinalResult="false"/>
			<OutputField name="normalizedAnomalyScore" optype="continuous" dataType="double" feature="transformedValue" isFinalResult="false">
				<Apply function="/">
					<FieldRef field="rawAnomalyScore"/>
					<Constant dataType="double">10.244770920119917</Constant>
				</Apply>
			</OutputField>
			<OutputField name="decisionFunction" optype="continuous" dataType="double" feature="transformedValue">
				<Apply function="-">
					<Constant dataType="double">0.5347997634977236</Constant>
					<Apply function="pow">
						<Constant dataType="double">2.0</Constant>
						<Apply function="*">
							<Constant dataType="integer">-1</Constant>
							<FieldRef field="normalizedAnomalyScore"/>
						</Apply>
					</Apply>
				</Apply>
			</OutputField>
			<OutputField name="outlier" optype="categorical" dataType="boolean" feature="decision">
				<Decisions businessProblem="Is this sample an outlier?">
					<Decision value="true" description="Outlier"/>
					<Decision value="false" description="Not outlier"/>
				</Decisions>
				<Apply function="lessOrEqual">
					<FieldRef field="decisionFunction"/>
					<Constant dataType="double">0.0</Constant>
				</Apply>
			</OutputField>
			<OutputField name="predict(outlier)" optype="categorical" dataType="integer" feature="transformedValue">
				<Apply function="if">
					<FieldRef field="outlier"/>
					<Constant dataType="integer">-1</Constant>
					<Constant dataType="integer">1</Constant>
				</Apply>
				<Value value="-1"/>
				<Value value="1"/>
			</OutputField>
		</Output>
		<LocalTransformations>
			<DerivedField name="standardScaler(x1)" optype="continuous" dataType="double">
				<Apply function="/">
					<Apply function="-">
						<FieldRef field="x1"/>
						<Constant dataType="double">41.65854683517062</Constant>
					</Apply>
					<Constant dataType="double">13.581741632313</Constant>
				</Apply>
			</DerivedField>
			<DerivedField name="standardScaler(x2)" optype="continuous" dataType="double">
				<Apply function="/">
					<Apply function="-">
						<FieldRef field="x2"/>
						<Constant dataType="double">94.92193765004747</Constant>
					</Apply>
					<Constant dataType="double">22.46180279604411</Constant>
				</Apply>
			</DerivedField>
			<DerivedField name="standardScaler(x3)" optype="continuous" dataType="double">
				<Apply function="/">
					<Apply function="-">
						<FieldRef field="x3"/>
						<Constant dataType="double">168.5877167190879</Constant>
					</Apply>
					<Constant dataType="double">9.14081110143484</Constant>
				</Apply>
			</DerivedField>
			<DerivedField name="standardScaler(x4)" optype="continuous" dataType="double">
				<Apply function="/">
					<Apply function="-">
						<FieldRef field="x4"/>
						<Constant dataType="double">131.45420889080833</Constant>
					</Apply>
					<Constant dataType="double">17.814719114908204</Constant>
				</Apply>
			</DerivedField>
			<DerivedField name="standardScaler(x5)" optype="continuous" dataType="double">
				<Apply function="/">
					<Apply function="-">
						<FieldRef field="x5"/>
						<Constant dataType="double">8628.39673898028</Constant>
					</Apply>
					<Constant dataType="double">2054.7022973177086</Constant>
				</Apply>
			</DerivedField>
			<DerivedField name="standardScaler(x6)" optype="continuous" dataType="double">
				<Apply function="/">
					<Apply function="-">
						<FieldRef field="x6"/>
						<Constant dataType="double">15.381315081161961</Constant>
					</Apply>
					<Constant dataType="double">9.985556843107785</Constant>
				</Apply>
			</DerivedField>
			<DerivedField name="standardScaler(x7)" optype="continuous" dataType="double">
				<Apply function="/">
					<Apply function="-">
						<FieldRef field="x7"/>
						<Constant dataType="double">7.048796493814883</Constant>
					</Apply>
					<Constant dataType="double">0.9720665848069099</Constant>
				</Apply>
			</DerivedField>
			<DerivedField name="float(standardScaler(x1))" optype="continuous" dataType="float">
				<FieldRef field="standardScaler(x1)"/>
			</DerivedField>
			<DerivedField name="float(standardScaler(x2))" optype="continuous" dataType="float">
				<FieldRef field="standardScaler(x2)"/>
			</DerivedField>
			<DerivedField name="float(standardScaler(x3))" optype="continuous" dataType="float">
				<FieldRef field="standardScaler(x3)"/>
			</DerivedField>
			<DerivedField name="float(standardScaler(x4))" optype="continuous" dataType="float">
				<FieldRef field="standardScaler(x4)"/>
			</DerivedField>
			<DerivedField name="float(standardScaler(x5))" optype="continuous" dataType="float">
				<FieldRef field="standardScaler(x5)"/>
			</DerivedField>
			<DerivedField name="float(standardScaler(x6))" optype="continuous" dataType="float">
				<FieldRef field="standardScaler(x6)"/>
			</DerivedField>
			<DerivedField name="float(standardScaler(x7))" optype="continuous" dataType="float">
				<FieldRef field="standardScaler(x7)"/>
			</DerivedField>
			<DerivedField name="double(float(standardScaler(x2)))" optype="continuous" dataType="double">
				<FieldRef field="float(standardScaler(x2))"/>
			</DerivedField>
			<DerivedField name="double(float(standardScaler(x7)))" optype="continuous" dataType="double">
				<FieldRef field="float(standardScaler(x7))"/>
			</DerivedField>
			<DerivedField name="double(float(standardScaler(x5)))" optype="continuous" dataType="double">
				<FieldRef field="float(standardScaler(x5))"/>
			</DerivedField>
			<DerivedField name="double(float(standardScaler(x1)))" optype="continuous" dataType="double">
				<FieldRef field="float(standardScaler(x1))"/>
			</DerivedField>
			<DerivedField name="double(float(standardScaler(x4)))" optype="continuous" dataType="double">
				<FieldRef field="float(standardScaler(x4))"/>
			</DerivedField>
			<DerivedField name="double(float(standardScaler(x6)))" optype="continuous" dataType="double">
				<FieldRef field="float(standardScaler(x6))"/>
			</DerivedField>
			<DerivedField name="double(float(standardScaler(x3)))" optype="continuous" dataType="double">
				<FieldRef field="float(standardScaler(x3))"/>
			</DerivedField>
		</LocalTransformations>
		<Segmentation multipleModelMethod="average" missingPredictionTreatment="returnMissing">
			<Segment id="1">
				<True/>
				<TreeModel functionName="regression" missingValueStrategy="nullPrediction" noTrueChildStrategy="returnLastPrediction">
					<MiningSchema>
						<MiningField name="double(float(standardScaler(x2)))"/>
						<MiningField name="double(float(standardScaler(x7)))"/>
						<MiningField name="double(float(standardScaler(x5)))"/>
						<MiningField name="double(float(standardScaler(x1)))"/>
						<MiningField name="double(float(standardScaler(x4)))"/>
						<MiningField name="double(float(standardScaler(x6)))"/>
						<MiningField name="double(float(standardScaler(x3)))"/>
					</MiningSchema>
					<Node score="3.0">
						<True/>
						<Node score="5.0">
							<SimplePredicate field="double(float(standardScaler(x2)))" operator="lessOrEqual" value="0.3232430498005492"/>
							<Node score="6.0">
								<SimplePredicate field="double(float(standardScaler(x7)))" operator="lessOrEqual" value="2.123856629494174"/>
								<Node score="5.0">
									<SimplePredicate field="double(float(standardScaler(x5)))" operator="lessOrEqual" value="-1.6919137378363829"/>
									<Node score="5.0">
										<SimplePredicate field="double(float(standardScaler(x1)))" operator="lessOrEqual" value="-0.988081764845363"/>
									</Node>
								</Node>
								<Node score="10.706640488004599">
									<SimplePredicate field="double(float(standardScaler(x4)))" operator="lessOrEqual" value="0.5190820518537165"/>
									<Node score="11.748880484475505">
										<SimplePredicate field="double(float(standardScaler(x6)))" operator="lessOrEqual" value="-0.6739483767722702"/>
										<Node score="8.0">
											<SimplePredicate field="double(float(standardScaler(x4)))" operator="lessOrEqual" value="-0.5828343999931316"/>
											<Node score="12.27809078322522">
												<SimplePredicate field="double(float(standardScaler(x2)))" operator="lessOrEqual" value="-0.4404400125974932"/>
												<Node score="9.851655907139286">
													<SimplePredicate field="double(float(standardScaler(x2)))" operator="lessOrEqual" value="-1.7706034021466386"/>
												</Node>
											</Node>
											<Node score="10.327020052042847">
												<SimplePredicate field="double(float(standardScaler(x6)))" operator="lessOrEqual" value="-0.7627450315788251"/>
											</Node>
										</Node>
										<Node score="11.941419697609339">
											<SimplePredicate field="double(float(standardScaler(x5)))" operator="lessOrEqual" value="0.3866703667833209"/>
											<Node score="8.0">
												<SimplePredicate field="double(float(standardScaler(x5)))" operator="lessOrEqual" value="-1.2540905144196206"/>
											</Node>
										</Node>
										<Node score="8.0">
											<SimplePredicate field="double(float(standardScaler(x6)))" operator="lessOrEqual" value="-1.3034434803516755"/>
										</Node>
									</Node>
									<Node score="10.706640488004599">
										<SimplePredicate field="double(float(standardScaler(x1)))" operator="lessOrEqual" value="0.7018231238386972"/>
										<Node score="7.0">
											<SimplePredicate field="double(float(standardScaler(x5)))" operator="lessOrEqual" value="-1.1046501786732752"/>
										</Node>
										<Node score="13.817533633240295">
											<SimplePredicate field="double(float(standardScaler(x2)))" operator="lessOrEqual" value="0.2079764122803449"/>
										</Node>
									</Node>
									<Node score="8.0">
										<SimplePredicate field="double(float(standardScaler(x4)))" operator="lessOrEqual" value="-0.5486371213441641"/>
										<Node score="12.565879322366916">
											<SimplePredicate field="double(float(standardScaler(x1)))" operator="lessOrEqual" value="1.6204772025666387"/>
										</Node>
									</Node>
									<Node score="11.023664553973461">
										<SimplePredicate field="double(float(standardScaler(x2)))" operator="lessOrEqual" value="-0.5232519084318421"/>
									</Node>
								</Node>
								<Node score="6.0">
									<SimplePredicate field="double(float(standardScaler(x7)))" operator="lessOrEqual" value="0.054220070938245435"/>
									<Node score="8.0">
										<SimplePredicate field="double(float(standardScaler(x4)))" operator="lessOrEqual" value="2.12698678686264"/>
										<Node score="10.327020052042847">
											<SimplePredicate field="double(float(standardScaler(x1)))" operator="lessOrEqual" value="-0.34674762999777675"/>
											<Node score="12.817255833106158">
												<SimplePredicate field="double(float(standardScaler(x3)))" operator="lessOrEqual" value="0.23512236904342898"/>
											</Node>
										</Node>
										<Node score="11.53553663538496">
											<SimplePredicate field="double(float(standardScaler(x3)))" operator="lessOrEqual" value="0.11687713570756819"/>
										</Node>
									</Node>
								</Node>
								<Node score="8.0">
									<SimplePredicate field="double(float(standardScaler(x6)))" operator="lessOrEqual" value="2.043736393194515"/>
									<Node score="9.851655907139286">
										<SimplePredicate field="double(float(standardScaler(x4)))" operator="lessOrEqual" value="0.7162829572943912"/>
										<Node score="9.0">
											<SimplePredicate field="double(float(standardScaler(x6)))" operator="lessOrEqual" value="-0.35360702217702145"/>
										</Node>
									</Node>
									<Node score="12.27809078322522">
										<SimplePredicate field="double(float(standardScaler(x1)))" operator="lessOrEqual" value="-0.05991253972166555"/>
									</Node>
								</Node>
							</Node>
							<Node score="3.0">
								<SimplePredicate field="double(float(standardScaler(x2)))" operator="lessOrEqual" value="-1.0262148450021813"/>
							</Node>
							<Node score="4.0">
								<SimplePredicate field="double(float(standardScaler(x3)))" operator="lessOrEqual" value="-0.4660577697459568"/>
							</Node>
						</Node>
						<Node score="4.0">
							<SimplePredicate field="double(float(standardScaler(x5)))" operator="lessOrEqual" value="1.3233356303197463"/>
							<Node score="6.0">
								<SimplePredicate field="double(float(standardScaler(x6)))" operator="lessOrEqual" value="2.611002435343176"/>
								<Node score="13.508753094994699">
									<SimplePredicate field="double(float(standardScaler(x4)))" operator="lessOrEqual" value="-0.28025849455407537"/>
									<Node score="6.0">
										<SimplePredicate field="double(float(standardScaler(x7)))" operator="lessOrEqual" value="-1.9757172977756856"/>
									</Node>
									<Node score="7.0">
										<SimplePredicate field="double(float(standardScaler(x7)))" operator="lessOrEqual" value="-1.1589157897302462"/>
									</Node>
									<Node score="11.023664553973461">
										<SimplePredicate field="double(float(standardScaler(x6)))" operator="lessOrEqual" value="-0.4943635780139847"/>
										<Node score="9.0">
											<SimplePredicate field="double(float(standardScaler(x4)))" operator="lessOrEqual" value="-1.285183017462197"/>
										</Node>
									</Node>
									<Node score="9.851655907139286">
										<SimplePredicate field="double(float(standardScaler(x1)))" operator="lessOrEqual" value="-0.6002980249863084"/>
									</Node>
								</Node>
								<Node score="9.0">
									<SimplePredicate field="double(float(standardScaler(x5)))" operator="lessOrEqual" value="0.03664726488377035"/>
									<Node score="8.0">
										<SimplePredicate field="double(float(standardScaler(x1)))" operator="lessOrEqual" value="-0.6323607813694123"/>
										<Node score="9.207392357589622">
											<SimplePredicate field="double(float(standardScaler(x6)))" operator="lessOrEqual" value="1.313781997946546"/>
											<Node score="11.941419697609339">
												<SimplePredicate field="double(float(standardScaler(x2)))" operator="lessOrEqual" value="1.4047393846033847"/>
											</Node>
										</Node>
										<Node score="9.0">
											<SimplePredicate field="double(float(standardScaler(x3)))" operator="lessOrEqual" value="2.2296747534674175"/>
										</Node>
									</Node>
									<Node score="9.207392357589622">
										<SimplePredicate field="double(float(standardScaler(x6)))" operator="lessOrEqual" value="-0.3794168946615616"/>
										<Node score="9.207392357589622">
											<SimplePredicate field="double(float(standardScaler(x7)))" operator="lessOrEqual" value="-0.13501334023723954"/>
										</Node>
									</Node>
									<Node score="10.706640488004599">
										<SimplePredicate field="double(float(standardScaler(x3)))" operator="lessOrEqual" value="1.636851608314715"/>
									</Node>
								</Node>
								<Node score="7.0">
									<SimplePredicate field="double(float(standardScaler(x7)))" operator="lessOrEqual" value="0.4156738218772289"/>
									<Node score="9.0">
										<SimplePredicate field="double(float(standardScaler(x6)))" operator="lessOrEqual" value="0.6531387191707669"/>
										<Node score="8.0">
											<SimplePredicate field="double(float(standardScaler(x3)))" operator="lessOrEqual" value="0.42621323582445236"/>
										</Node>
									</Node>
								</Node>
							</Node>
							<Node score="6.0">
								<SimplePredicate field="double(float(standardScaler(x1)))" operator="lessOrEqual" value="1.5040825039681853"/>
								<Node score="6.0">
									<SimplePredicate field="double(float(standardScaler(x3)))" operator="lessOrEqual" value="0.8739954210060843"/>
								</Node>
							</Node>
						</Node>
					</Node>
				</TreeModel>
			</Segment>
			<Segment id="2">
				<True/>
				<TreeModel functionName="regression" missingValueStrategy="nullPrediction" noTrueChildStrategy="returnLastPrediction">
					<MiningSchema>
						<MiningField name="double(float(standardScaler(x2)))"/>
						<MiningField name="double(float(standardScaler(x7)))"/>
						<MiningField name="double(float(standardScaler(x5)))"/>
						<MiningField name="double(float(standardScaler(x1)))"/>
						<MiningField name="double(float(standardScaler(x4)))"/>
						<MiningField name="double(float(standardScaler(x6)))"/>
						<MiningField name="double(float(standardScaler(x3)))"/>
					</MiningSchema>
					<Node score="8.0">
						<True/>
						<Node score="7.0">
							<SimplePredicate field="double(float(standardScaler(x3)))" operator="lessOrEqual" value="0.35191619140859265"/>
							<Node score="6.0">
								<SimplePredicate field="double(float(standardScaler(x3)))" operator="lessOrEqual" value="-1.2801808117475098"/>
								<Node score="5.0">
									<SimplePredicate field="double(float(standardScaler(x1)))" operator="lessOrEqual" value="-0.1494105483406285"/>
									<Node score="6.0">
										<SimplePredicate field="double(float(standardScaler(x1)))" operator="lessOrEqual" value="-0.8862555268287388"/>
										<Node score="5.0">
											<SimplePredicate field="double(float(standardScaler(x4)))" operator="lessOrEqual" value="-0.31063340998940464"/>
										</Node>
										<Node score="7.0">
											<SimplePredicate field="double(float(standardScaler(x4)))" operator="lessOrEqual" value="1.2322389206647046"/>
										</Node>
									</Node>
									<Node score="6.0">
										<SimplePredicate field="double(float(standardScaler(x6)))" operator="lessOrEqual" value="-1.0957124362396455"/>
									</Node>
								</Node>
								<Node score="7.0">
									<SimplePredicate field="double(float(standardScaler(x2)))" operator="lessOrEqual" value="0.18816634452755876"/>
									<Node score="6.0">
										<SimplePredicate field="double(float(standardScaler(x7)))" operator="lessOrEqual" value="-0.119635608371087"/>
										<Node score="9.851655907139286">
											<SimplePredicate field="double(float(standardScaler(x2)))" operator="lessOrEqual" value="-0.7702445430675386"/>
											<Node score="7.0">
												<SimplePredicate field="double(float(standardScaler(x7)))" operator="lessOrEqual" value="-1.512592963185009"/>
											</Node>
											<Node score="8.0">
												<SimplePredicate field="double(float(standardScaler(x5)))" operator="lessOrEqual" value="0.22613642195833683"/>
											</Node>
										</Node>
									</Node>
									<Node score="7.0">
										<SimplePredicate field="double(float(standardScaler(x2)))" operator="lessOrEqual" value="-0.6949423208788917"/>
										<Node score="9.0">
											<SimplePredicate field="double(float(standardScaler(x7)))" operator="lessOrEqual" value="1.9786280984104572"/>
											<Node score="9.207392357589622">
												<SimplePredicate field="double(float(standardScaler(x7)))" operator="lessOrEqual" value="0.5331561691639529"/>
											</Node>
										</Node>
									</Node>
								</Node>
								<Node score="6.0">
									<SimplePredicate field="double(float(standardScaler(x5)))" operator="lessOrEqual" value="-0.745178673463897"/>
								</Node>
							</Node>
							<Node score="7.0">
								<SimplePredicate field="double(float(standardScaler(x2)))" operator="lessOrEqual" value="-0.25584406646771685"/>
								<Node score="11.296251627913692">
									<SimplePredicate field="double(float(standardScaler(x2)))" operator="lessOrEqual" value="-0.9237823296318093"/>
									<Node score="7.0">
										<SimplePredicate field="double(float(standardScaler(x1)))" operator="lessOrEqual" value="-0.20114611794979798"/>
										<Node score="9.0">
											<SimplePredicate field="double(float(standardScaler(x1)))" operator="lessOrEqual" value="-0.47837593802633216"/>
											<Node score="9.0">
												<SimplePredicate field="double(float(standardScaler(x7)))" operator="lessOrEqual" value="-0.2534193449478108"/>
												<Node score="9.207392357589622">
													<SimplePredicate field="double(float(standardScaler(x6)))" operator="lessOrEqual" value="0.15869789099618942"/>
												</Node>
											</Node>
											<Node score="11.023664553973461">
												<SimplePredicate field="double(float(standardScaler(x4)))" operator="lessOrEqual" value="0.9660061800575792"/>
											</Node>
										</Node>
									</Node>
									<Node score="7.0">
										<SimplePredicate field="double(float(standardScaler(x3)))" operator="lessOrEqual" value="-1.1496187844714727"/>
									</Node>
									<Node score="8.0">
										<SimplePredicate field="double(float(standardScaler(x6)))" operator="lessOrEqual" value="-1.0646137725599978"/>
										<Node score="9.207392357589622">
											<SimplePredicate field="double(float(standardScaler(x5)))" operator="lessOrEqual" value="1.2796241136137554"/>
										</Node>
									</Node>
									<Node score="10.706640488004599">
										<SimplePredicate field="double(float(standardScaler(x1)))" operator="lessOrEqual" value="0.5920672192167622"/>
									</Node>
								</Node>
								<Node score="9.0">
									<SimplePredicate field="double(float(standardScaler(x4)))" operator="lessOrEqual" value="1.1879541798938287"/>
									<Node score="9.0">
										<SimplePredicate field="double(float(standardScaler(x6)))" operator="lessOrEqual" value="-0.9684339044014711"/>
										<Node score="9.851655907139286">
											<SimplePredicate field="double(float(standardScaler(x2)))" operator="lessOrEqual" value="-0.5946565659882614"/>
											<Node score="9.0">
												<SimplePredicate field="double(float(standardScaler(x1)))" operator="lessOrEqual" value="-0.06689816878979538"/>
											</Node>
										</Node>
										<Node score="8.0">
											<SimplePredicate field="double(float(standardScaler(x4)))" operator="lessOrEqual" value="0.052120751975800295"/>
										</Node>
									</Node>
									<Node score="8.0">
										<SimplePredicate field="double(float(standardScaler(x4)))" operator="lessOrEqual" value="0.04119857010894168"/>
										<Node score="10.327020052042847">
											<SimplePredicate field="double(float(standardScaler(x6)))" operator="lessOrEqual" value="0.4265502854103571"/>
										</Node>
									</Node>
									<Node score="11.023664553973461">
										<SimplePredicate field="double(float(standardScaler(x2)))" operator="lessOrEqual" value="-0.34671479980002684"/>
									</Node>
								</Node>
								<Node score="7.0">
									<SimplePredicate field="double(float(standardScaler(x4)))" operator="lessOrEqual" value="1.5673550137642265"/>
								</Node>
							</Node>
							<Node score="8.0">
								<SimplePredicate field="double(float(standardScaler(x4)))" operator="lessOrEqual" value="0.6896039361939166"/>
								<Node score="12.565879322366916">
									<SimplePredicate field="double(float(standardScaler(x6)))" operator="lessOrEqual" value="1.9448209291247736"/>
									<Node score="7.0">
										<SimplePredicate field="double(float(standardScaler(x7)))" operator="lessOrEqual" value="0.085882785075027"/>
										<Node score="12.427187187583282">
											<SimplePredicate field="double(float(standardScaler(x5)))" operator="lessOrEqual" value="1.8260939620116128"/>
											<Node score="12.565879322366916">
												<SimplePredicate field="double(float(standardScaler(x6)))" operator="lessOrEqual" value="0.10124113939943458"/>
											</Node>
										</Node>
									</Node>
									<Node score="9.207392357589622">
										<SimplePredicate field="double(float(standardScaler(x5)))" operator="lessOrEqual" value="-1.6356214248061132"/>
										<Node score="8.0">
											<SimplePredicate field="double(float(standardScaler(x1)))" operator="lessOrEqual" value="1.061065293624188"/>
										</Node>
									</Node>
									<Node score="10.706640488004599">
										<SimplePredicate field="double(float(standardScaler(x1)))" operator="lessOrEqual" value="-0.41943422553440135"/>
									</Node>
								</Node>
								<Node score="6.0">
									<SimplePredicate field="double(float(standardScaler(x3)))" operator="lessOrEqual" value="-0.7332337550628097"/>
								</Node>
								<Node score="7.0">
									<SimplePredicate field="double(float(standardScaler(x1)))" operator="lessOrEqual" value="-0.3574543616458316"/>
								</Node>
								<Node score="9.0">
									<SimplePredicate field="double(float(standardScaler(x6)))" operator="lessOrEqual" value="2.5541646674407668"/>
								</Node>
							</Node>
							<Node score="7.0">
								<SimplePredicate field="double(float(standardScaler(x7)))" operator="lessOrEqual" value="-0.950129073611218"/>
								<Node score="8.0">
									<SimplePredicate field="double(float(standardScaler(x3)))" operator="lessOrEqual" value="-0.5469005424551043"/>
									<Node score="7.0">
										<SimplePredicate field="double(float(standardScaler(x3)))" operator="lessOrEqual" value="-1.0647772391881296"/>
									</Node>
								</Node>
							</Node>
							<Node score="8.0">
								<SimplePredicate field="double(float(standardScaler(x6)))" operator="lessOrEqual" value="0.7238505845440866"/>
								<Node score="7.0">
									<SimplePredicate field="double(float(standardScaler(x4)))" operator="lessOrEqual" value="0.88812572247359"/>
								</Node>
								<Node score="10.327020052042847">
									<SimplePredicate field="double(float(standardScaler(x3)))" operator="lessOrEqual" value="0.10086198795467127"/>
								</Node>
							</Node>
							<Node score="8.0">
								<SimplePredicate field="double(float(standardScaler(x2)))" operator="lessOrEqual" value="0.806731266390993"/>
								<Node score="10.706640488004599">
									<SimplePredicate field="double(float(standardScaler(x6)))" operator="lessOrEqual" value="2.807269512105398"/>
								</Node>
							</Node>
						</Node>
						<Node score="2.0">
							<SimplePredicate field="double(float(standardScaler(x2)))" operator="lessOrEqual" value="-1.2560226769816623"/>
						</Node>
						<Node score="7.0">
							<SimplePredicate field="double(float(standardScaler(x3)))" operator="lessOrEqual" value="1.0379261058596072"/>
							<Node score="5.0">
								<SimplePredicate field="double(float(standardScaler(x4)))" operator="lessOrEqual" value="-1.2631803635159424"/>
								<Node score="6.0">
									<SimplePredicate field="double(float(standardScaler(x6)))" operator="lessOrEqual" value="0.40830693024616416"/>
								</Node>
							</Node>
							<Node score="6.0">
								<SimplePredicate field="double(float(standardScaler(x3)))" operator="lessOrEqual" value="0.44945950457224365"/>
								<Node score="7.0">
									<SimplePredicate field="double(float(standardScaler(x1)))" operator="lessOrEqual" value="-0.37296583942387707"/>
									<Node score="8.0">
										<SimplePredicate field="double(float(standardScaler(x7)))" operator="lessOrEqual" value="1.0169995378585173"/>
										<Node score="9.0">
											<SimplePredicate field="double(float(standardScaler(x2)))" operator="lessOrEqual" value="1.5454311138161647"/>
										</Node>
									</Node>
								</Node>
							</Node>
							<Node score="7.0">
								<SimplePredicate field="double(float(standardScaler(x5)))" operator="lessOrEqual" value="-0.31982479916726514"/>
								<Node score="9.851655907139286">
									<SimplePredicate field="double(float(standardScaler(x1)))" operator="lessOrEqual" value="0.7780468062541326"/>
									<Node score="12.427187187583282">
										<SimplePredicate field="double(float(standardScaler(x3)))" operator="lessOrEqual" value="0.9562920607888055"/>
									</Node>
								</Node>
							</Node>
							<Node score="10.706640488004599">
								<SimplePredicate field="double(float(standardScaler(x3)))" operator="lessOrEqual" value="1.0118375128546235"/>
								<Node score="12.565879322366916">
									<SimplePredicate field="double(float(standardScaler(x3)))" operator="lessOrEqual" value="0.9202839889009929"/>
								</Node>
							</Node>
						</Node>
						<Node score="7.0">
							<SimplePredicate field="double(float(standardScaler(x5)))" operator="lessOrEqual" value="-0.33610768950612013"/>
							<Node score="6.0">
								<SimplePredicate field="double(float(standardScaler(x5)))" operator="lessOrEqual" value="-0.6824854703429335"/>
								<Node score="7.0">
									<SimplePredicate field="double(float(standardScaler(x6)))" operator="lessOrEqual" value="0.17280448611294863"/>
									<Node score="8.0">
										<SimplePredicate field="double(float(standardScaler(x7)))" operator="lessOrEqual" value="0.641847769022367"/>
										<Node score="10.327020052042847">
											<SimplePredicate field="double(float(standardScaler(x4)))" operator="lessOrEqual" value="0.14169765366869513"/>
										</Node>
									</Node>
								</Node>
							</Node>
							<Node score="7.0">
								<SimplePredicate field="double(float(standardScaler(x7)))" operator="lessOrEqual" value="0.08265611779572746"/>
							</Node>
						</Node>
						<Node score="9.851655907139286">
							<SimplePredicate field="double(float(standardScaler(x6)))" operator="lessOrEqual" value="0.3689488505417631"/>
							<Node score="8.0">
								<SimplePredicate field="double(float(standardScaler(x6)))" operator="lessOrEqual" value="-0.5853331818701701"/>
								<Node score="9.0">
									<SimplePredicate field="double(float(standardScaler(x3)))" operator="lessOrEqual" value="1.1532962319760496"/>
									<Node score="8.0">
										<SimplePredicate field="double(float(standardScaler(x4)))" operator="lessOrEqual" value="-0.6718741570779361"/>
									</Node>
								</Node>
							</Node>
							<Node score="8.0">
								<SimplePredicate field="double(float(standardScaler(x1)))" operator="lessOrEqual" value="-1.5509662580416017"/>
							</Node>
							<Node score="9.0">
								<SimplePredicate field="double(float(standardScaler(x4)))" operator="lessOrEqual" value="-0.5233831493440451"/>
							</Node>
						</Node>
						<Node score="8.0">
							<SimplePredicate field="double(float(standardScaler(x2)))" operator="lessOrEqual" value="1.617761956080523"/>
							<Node score="9.851655907139286">
								<SimplePredicate field="double(float(standardScaler(x5)))" operator="lessOrEqual" value="0.935021524629257"/>
								<Node score="8.0">
									<SimplePredicate field="double(float(standardScaler(x2)))" operator="lessOrEqual" value="-0.05587882989341639"/>
								</Node>
							</Node>
						</Node>
						<Node score="8.0">
							<SimplePredicate field="double(float(standardScaler(x2)))" operator="lessOrEqual" value="1.871008150875204"/>
						</Node>
					</Node>
				</TreeModel>
			</Segment>
			<Segment id="3">
				<True/>
				<TreeModel functionName="regression" missingValueStrategy="nullPrediction" noTrueChildStrategy="returnLastPrediction">
					<MiningSchema>
						<MiningField name="double(float(standardScaler(x2)))"/>
						<MiningField name="double(float(standardScaler(x7)))"/>
						<MiningField name="double(float(standardScaler(x5)))"/>
						<MiningField name="double(float(standardScaler(x1)))"/>
						<MiningField name="double(float(standardScaler(x4)))"/>
						<MiningField name="double(float(standardScaler(x6)))"/>
						<MiningField name="double(float(standardScaler(x3)))"/>
					</MiningSchema>
					<Node score="3.0">
						<True/>
						<Node score="6.0">
							<SimplePredicate field="double(float(standardScaler(x5)))" operator="lessOrEqual" value="0.5910950598518854"/>
							<Node score="3.0">
								<SimplePredicate field="double(float(standardScaler(x7)))" operator="lessOrEqual" value="-2.7243037367413243"/>
								<Node score="4.0">
									<SimplePredicate field="double(float(standardScaler(x1)))" operator="lessOrEqual" value="-0.8673925987312533"/>
								</Node>
							</Node>
							<Node score="11.941419697609339">
								<SimplePredicate field="double(float(standardScaler(x5)))" operator="lessOrEqual" value="-0.09790279602994056"/>
								<Node score="14.480885700537888">
									<SimplePredicate field="double(float(standardScaler(x6)))" operator="lessOrEqual" value="0.339757535356503"/>
									<Node score="10.706640488004599">
										<SimplePredicate field="double(float(standardScaler(x5)))" operator="lessOrEqual" value="-1.0808849639548894"/>
										<Node score="6.0">
											<SimplePredicate field="double(float(standardScaler(x4)))" operator="lessOrEqual" value="-1.224519066541109"/>
										</Node>
										<Node score="9.851655907139286">
											<SimplePredicate field="double(float(standardScaler(x1)))" operator="lessOrEqual" value="-0.5989741281345535"/>
											<Node score="8.0">
												<SimplePredicate field="double(float(standardScaler(x7)))" operator="lessOrEqual" value="-1.263291780247459"/>
											</Node>
										</Node>
										<Node score="9.207392357589622">
											<SimplePredicate field="double(float(standardScaler(x7)))" operator="lessOrEqual" value="-0.3037318672365268"/>
										</Node>
									</Node>
									<Node score="7.0">
										<SimplePredicate field="double(float(standardScaler(x2)))" operator="lessOrEqual" value="-1.4927878002695314"/>
									</Node>
									<Node score="11.023664553973461">
										<SimplePredicate field="double(float(standardScaler(x3)))" operator="lessOrEqual" value="-0.5920753088728659"/>
										<Node score="11.748880484475505">
											<SimplePredicate field="double(float(standardScaler(x3)))" operator="lessOrEqual" value="-1.1164875624350017"/>
										</Node>
									</Node>
									<Node score="11.941419697609339">
										<SimplePredicate field="double(float(standardScaler(x3)))" operator="lessOrEqual" value="-0.10279070069368484"/>
									</Node>
								</Node>
								<Node score="7.0">
									<SimplePredicate field="double(float(standardScaler(x2)))" operator="lessOrEqual" value="0.05603195766392899"/>
									<Node score="7.0">
										<SimplePredicate field="double(float(standardScaler(x4)))" operator="lessOrEqual" value="1.1008887759038215"/>
										<Node score="11.023664553973461">
											<SimplePredicate field="double(float(standardScaler(x7)))" operator="lessOrEqual" value="0.43973155985602386"/>
											<Node score="8.0">
												<SimplePredicate field="double(float(standardScaler(x2)))" operator="lessOrEqual" value="-0.8531786979905804"/>
											</Node>
										</Node>
									</Node>
								</Node>
								<Node score="11.023664553973461">
									<SimplePredicate field="double(float(standardScaler(x3)))" operator="lessOrEqual" value="0.4672079623362442"/>
									<Node score="9.0">
										<SimplePredicate field="double(float(standardScaler(x2)))" operator="lessOrEqual" value="0.7811481694521736"/>
										<Node score="9.0">
											<SimplePredicate field="double(float(standardScaler(x4)))" operator="lessOrEqual" value="0.6405857605833589"/>
										</Node>
									</Node>
									<Node score="8.0">
										<SimplePredicate field="double(float(standardScaler(x5)))" operator="lessOrEqual" value="-1.4068309120459062"/>
									</Node>
								</Node>
								<Node score="8.0">
									<SimplePredicate field="double(float(standardScaler(x5)))" operator="lessOrEqual" value="-2.0675538789950254"/>
								</Node>
								<Node score="8.0">
									<SimplePredicate field="double(float(standardScaler(x7)))" operator="lessOrEqual" value="-0.7990845084870147"/>
								</Node>
							</Node>
							<Node score="5.0">
								<SimplePredicate field="double(float(standardScaler(x3)))" operator="lessOrEqual" value="1.046294048448253"/>
								<Node score="10.327020052042847">
									<SimplePredicate field="double(float(standardScaler(x6)))" operator="lessOrEqual" value="2.4209416732936115"/>
									<Node score="8.0">
										<SimplePredicate field="double(float(standardScaler(x5)))" operator="lessOrEqual" value="-0.08094610525526216"/>
										<Node score="7.0">
											<SimplePredicate field="double(float(standardScaler(x3)))" operator="lessOrEqual" value="-1.5211996663364635"/>
										</Node>
									</Node>
									<Node score="11.941419697609339">
										<SimplePredicate field="double(float(standardScaler(x2)))" operator="lessOrEqual" value="-0.24172639811620278"/>
										<Node score="11.023664553973461">
											<SimplePredicate field="double(float(standardScaler(x1)))" operator="lessOrEqual" value="-0.7478364604004241"/>
										</Node>
									</Node>
									<Node score="12.931969129026609">
										<SimplePredicate field="double(float(standardScaler(x7)))" operator="lessOrEqual" value="0.7022179082819604"/>
									</Node>
								</Node>
							</Node>
							<Node score="6.0">
								<SimplePredicate field="double(float(standardScaler(x1)))" operator="lessOrEqual" value="-1.4659773004038361"/>
							</Node>
							<Node score="8.0">
								<SimplePredicate field="double(float(standardScaler(x7)))" operator="lessOrEqual" value="1.2800229618461496"/>
								<Node score="8.0">
									<SimplePredicate field="double(float(standardScaler(x6)))" operator="lessOrEqual" value="-0.21585247803568408"/>
								</Node>
								<Node score="9.0">
									<SimplePredicate field="double(float(standardScaler(x1)))" operator="lessOrEqual" value="0.9451566856846205"/>
								</Node>
							</Node>
						</Node>
						<Node score="3.0">
							<SimplePredicate field="double(float(standardScaler(x2)))" operator="lessOrEqual" value="-1.242418578300049"/>
							<Node score="5.0">
								<SimplePredicate field="double(float(standardScaler(x6)))" operator="lessOrEqual" value="-0.23736832816932907"/>
								<Node score="6.0">
									<SimplePredicate field="double(float(standardScaler(x1)))" operator="lessOrEqual" value="-0.30642546733802556"/>
									<Node score="6.0">
										<SimplePredicate field="double(float(standardScaler(x1)))" operator="lessOrEqual" value="-1.4285199045695558"/>
									</Node>
								</Node>
							</Node>
						</Node>
						<Node score="5.0">
							<SimplePredicate field="double(float(standardScaler(x3)))" operator="lessOrEqual" value="2.0526192966395027"/>
							<Node score="8.0">
								<SimplePredicate field="double(float(standardScaler(x4)))" operator="lessOrEqual" value="-0.19331849871872597"/>
								<Node score="7.0">
									<SimplePredicate field="double(float(standardScaler(x1)))" operator="lessOrEqual" value="-0.07346151841026671"/>
									<Node score="9.207392357589622">
										<SimplePredicate field="double(float(standardScaler(x1)))" operator="lessOrEqual" value="-0.31488445051800795"/>
										<Node score="8.0">
											<SimplePredicate field="double(float(standardScaler(x3)))" operator="lessOrEqual" value="-0.5792405433619074"/>
										</Node>
										<Node score="9.207392357589622">
											<SimplePredicate field="double(float(standardScaler(x3)))" operator="lessOrEqual" value="0.28040757897762125"/>
										</Node>
									</Node>
								</Node>
								<Node score="8.0">
									<SimplePredicate field="double(float(standardScaler(x2)))" operator="lessOrEqual" value="-0.5550807802186526"/>
									<Node score="8.0">
										<SimplePredicate field="double(float(standardScaler(x5)))" operator="lessOrEqual" value="1.0098820356470721"/>
									</Node>
								</Node>
								<Node score="10.706640488004599">
									<SimplePredicate field="double(float(standardScaler(x6)))" operator="lessOrEqual" value="-0.5638568757546206"/>
									<Node score="8.0">
										<SimplePredicate field="double(float(standardScaler(x7)))" operator="lessOrEqual" value="-1.2241897500518717"/>
									</Node>
								</Node>
								<Node score="11.748880484475505">
									<SimplePredicate field="double(float(standardScaler(x5)))" operator="lessOrEqual" value="1.977237563249932"/>
								</Node>
							</Node>
							<Node score="10.327020052042847">
								<SimplePredicate field="double(float(standardScaler(x5)))" operator="lessOrEqual" value="2.8930779281351913"/>
								<Node score="7.0">
									<SimplePredicate field="double(float(standardScaler(x1)))" operator="lessOrEqual" value="0.1062005156383965"/>
									<Node score="9.851655907139286">
										<SimplePredicate field="double(float(standardScaler(x2)))" operator="lessOrEqual" value="1.0953438150409491"/>
										<Node score="12.931969129026609">
											<SimplePredicate field="double(float(standardScaler(x4)))" operator="lessOrEqual" value="1.8937779845563143"/>
										</Node>
									</Node>
								</Node>
								<Node score="10.706640488004599">
									<SimplePredicate field="double(float(standardScaler(x1)))" operator="lessOrEqual" value="0.9583840365483889"/>
									<Node score="9.207392357589622">
										<SimplePredicate field="double(float(standardScaler(x3)))" operator="lessOrEqual" value="0.4167443378548943"/>
									</Node>
								</Node>
								<Node score="8.0">
									<SimplePredicate field="double(float(standardScaler(x7)))" operator="lessOrEqual" value="-1.8067541492542905"/>
								</Node>
							</Node>
						</Node>
					</Node>
				</TreeModel>
			</Segment>
			<Segment id="4">
				<True/>
				<TreeModel functionName="regression" missingValueStrategy="nullPrediction" noTrueChildStrategy="returnLastPrediction">
					<MiningSchema>
						<MiningField name="double(float(standardScaler(x2)))"/>
						<MiningField name="double(float(standardScaler(x7)))"/>
						<MiningField name="double(float(standardScaler(x5)))"/>
						<MiningField name="double(float(standardScaler(x1)))"/>
						<MiningField name="double(float(standardScaler(x4)))"/>
						<MiningField name="double(float(standardScaler(x6)))"/>
						<MiningField name="double(float(standardScaler(x3)))"/>
					</MiningSchema>
					<Node score="8.0">
						<True/>
						<Node score="5.0">
							<SimplePredicate field="double(float(standardScaler(x3)))" operator="lessOrEqual" value="-0.7243602698042664"/>
							<Node score="3.0">
								<SimplePredicate field="double(float(standardScaler(x7)))" operator="lessOrEqual" value="-1.4124423186380954"/>
								<Node score="6.0">
									<SimplePredicate field="double(float(standardScaler(x4)))" operator="lessOrEqual" value="0.8262117642002689"/>
									<Node score="4.0">
										<SimplePredicate field="double(float(standardScaler(x6)))" operator="lessOrEqual" value="-0.9770797309746616"/>
									</Node>
									<Node score="5.0">
										<SimplePredicate field="double(float(standardScaler(x7)))" operator="lessOrEqual" value="-2.043892143696427"/>
									</Node>
									<Node score="7.0">
										<SimplePredicate field="double(float(standardScaler(x5)))" operator="lessOrEqual" value="-0.1828757005802124"/>
									</Node>
								</Node>
							</Node>
							<Node score="4.0">
								<SimplePredicate field="double(float(standardScaler(x6)))" operator="lessOrEqual" value="0.8728467067265173"/>
								<Node score="10.327020052042847">
									<SimplePredicate field="double(float(standardScaler(x5)))" operator="lessOrEqual" value="2.3640269608975655"/>
									<Node score="7.0">
										<SimplePredicate field="double(float(standardScaler(x2)))" operator="lessOrEqual" value="-1.2518690362530176"/>
										<Node score="8.0">
											<SimplePredicate field="double(float(standardScaler(x7)))" operator="lessOrEqual" value="-0.3448251948796075"/>
											<Node score="9.207392357589622">
												<SimplePredicate field="double(float(standardScaler(x2)))" operator="lessOrEqual" value="-1.7845100244712118"/>
												<Node score="9.0">
													<SimplePredicate field="double(float(standardScaler(x6)))" operator="lessOrEqual" value="-1.3123487553815603"/>
												</Node>
											</Node>
										</Node>
										<Node score="8.0">
											<SimplePredicate field="double(float(standardScaler(x6)))" operator="lessOrEqual" value="0.35429267861269986"/>
											<Node score="11.023664553973461">
												<SimplePredicate field="double(float(standardScaler(x1)))" operator="lessOrEqual" value="1.0701599473406276"/>
											</Node>
										</Node>
									</Node>
									<Node score="9.0">
										<SimplePredicate field="double(float(standardScaler(x6)))" operator="lessOrEqual" value="-0.953314700649179"/>
										<Node score="8.0">
											<SimplePredicate field="double(float(standardScaler(x6)))" operator="lessOrEqual" value="-1.027763072844874"/>
											<Node score="9.207392357589622">
												<SimplePredicate field="double(float(standardScaler(x5)))" operator="lessOrEqual" value="0.505256653152464"/>
											</Node>
										</Node>
										<Node score="8.0">
											<SimplePredicate field="double(float(standardScaler(x7)))" operator="lessOrEqual" value="-0.5281456891722915"/>
										</Node>
									</Node>
									<Node score="9.851655907139286">
										<SimplePredicate field="double(float(standardScaler(x4)))" operator="lessOrEqual" value="-0.11298650374358932"/>
										<Node score="11.53553663538496">
											<SimplePredicate field="double(float(standardScaler(x4)))" operator="lessOrEqual" value="-0.27278506896926347"/>
										</Node>
									</Node>
									<Node score="11.023664553973461">
										<SimplePredicate field="double(float(standardScaler(x2)))" operator="lessOrEqual" value="-0.06315372488764925"/>
									</Node>
								</Node>
							</Node>
							<Node score="5.0">
								<SimplePredicate field="double(float(standardScaler(x5)))" operator="lessOrEqual" value="-0.3743961925167312"/>
								<Node score="6.0">
									<SimplePredicate field="double(float(standardScaler(x2)))" operator="lessOrEqual" value="0.38786093560259427"/>
								</Node>
							</Node>
						</Node>
						<Node score="6.0">
							<SimplePredicate field="double(float(standardScaler(x3)))" operator="lessOrEqual" value="0.7645331688465407"/>
							<Node score="6.0">
								<SimplePredicate field="double(float(standardScaler(x5)))" operator="lessOrEqual" value="-1.2395977551585413"/>
								<Node score="4.0">
									<SimplePredicate field="double(float(standardScaler(x2)))" operator="lessOrEqual" value="-0.6042010743576676"/>
								</Node>
								<Node score="6.0">
									<SimplePredicate field="double(float(standardScaler(x1)))" operator="lessOrEqual" value="1.0210881722995881"/>
									<Node score="8.0">
										<SimplePredicate field="double(float(standardScaler(x5)))" operator="lessOrEqual" value="-1.3465277615439823"/>
										<Node score="9.851655907139286">
											<SimplePredicate field="double(float(standardScaler(x3)))" operator="lessOrEqual" value="0.039163201829672034"/>
											<Node score="9.0">
												<SimplePredicate field="double(float(standardScaler(x1)))" operator="lessOrEqual" value="-1.2176788022397829"/>
											</Node>
										</Node>
										<Node score="9.0">
											<SimplePredicate field="double(float(standardScaler(x6)))" operator="lessOrEqual" value="0.9354555605965582"/>
										</Node>
									</Node>
								</Node>
								<Node score="8.0">
									<SimplePredicate field="double(float(standardScaler(x7)))" operator="lessOrEqual" value="0.0185971248378769"/>
									<Node score="7.0">
										<SimplePredicate field="double(float(standardScaler(x1)))" operator="lessOrEqual" value="1.3056957104785252"/>
									</Node>
									<Node score="9.0">
										<SimplePredicate field="double(float(standardScaler(x3)))" operator="lessOrEqual" value="0.22443433742265784"/>
									</Node>
								</Node>
							</Node>
							<Node score="9.0">
								<SimplePredicate field="double(float(standardScaler(x4)))" operator="lessOrEqual" value="-1.1005251974756343"/>
								<Node score="7.0">
									<SimplePredicate field="double(float(standardScaler(x4)))" operator="lessOrEqual" value="-1.7269334930327795"/>
									<Node score="6.0">
										<SimplePredicate field="double(float(standardScaler(x4)))" operator="lessOrEqual" value="-1.9218931177523242"/>
									</Node>
								</Node>
								<Node score="8.0">
									<SimplePredicate field="double(float(standardScaler(x6)))" operator="lessOrEqual" value="0.12007896954302999"/>
									<Node score="11.748880484475505">
										<SimplePredicate field="double(float(standardScaler(x6)))" operator="lessOrEqual" value="0.010564051907417937"/>
										<Node score="8.0">
											<SimplePredicate field="double(float(standardScaler(x1)))" operator="lessOrEqual" value="0.275752185118304"/>
										</Node>
									</Node>
								</Node>
								<Node score="8.0">
									<SimplePredicate field="double(float(standardScaler(x7)))" operator="lessOrEqual" value="-0.5974812842446984"/>
								</Node>
								<Node score="9.851655907139286">
									<SimplePredicate field="double(float(standardScaler(x4)))" operator="lessOrEqual" value="-1.3231427658466988"/>
								</Node>
							</Node>
							<Node score="6.0">
								<SimplePredicate field="double(float(standardScaler(x5)))" operator="lessOrEqual" value="-0.9679149151473069"/>
								<Node score="7.0">
									<SimplePredicate field="double(float(standardScaler(x6)))" operator="lessOrEqual" value="1.9800380658103829"/>
									<Node score="9.851655907139286">
										<SimplePredicate field="double(float(standardScaler(x4)))" operator="lessOrEqual" value="0.5985175063308625"/>
										<Node score="9.0">
											<SimplePredicate field="double(float(standardScaler(x2)))" operator="lessOrEqual" value="0.14938168591840684"/>
										</Node>
									</Node>
								</Node>
							</Node>
							<Node score="10.327020052042847">
								<SimplePredicate field="double(float(standardScaler(x6)))" operator="lessOrEqual" value="3.384883880575969"/>
								<Node score="15.50296672729164">
									<SimplePredicate field="double(float(standardScaler(x1)))" operator="lessOrEqual" value="1.040008974241852"/>
									<Node score="11.023664553973461">
										<SimplePredicate field="double(float(standardScaler(x2)))" operator="lessOrEqual" value="-1.3172131831977276"/>
									</Node>
								</Node>
								<Node score="11.296251627913692">
									<SimplePredicate field="double(float(standardScaler(x1)))" operator="lessOrEqual" value="1.2758838431588155"/>
								</Node>
							</Node>
						</Node>
						<Node score="7.0">
							<SimplePredicate field="double(float(standardScaler(x5)))" operator="lessOrEqual" value="0.1787154926429424"/>
							<Node score="5.0">
								<SimplePredicate field="double(float(standardScaler(x7)))" operator="lessOrEqual" value="-1.7011647767051803"/>
							</Node>
							<Node score="9.207392357589622">
								<SimplePredicate field="double(float(standardScaler(x7)))" operator="lessOrEqual" value="1.1645154502703239"/>
								<Node score="8.0">
									<SimplePredicate field="double(float(standardScaler(x6)))" operator="lessOrEqual" value="0.8752912804709347"/>
									<Node score="9.851655907139286">
										<SimplePredicate field="double(float(standardScaler(x4)))" operator="lessOrEqual" value="0.41632175973914265"/>
										<Node score="11.748880484475505">
											<SimplePredicate field="double(float(standardScaler(x5)))" operator="lessOrEqual" value="-0.2753040404018958"/>
										</Node>
									</Node>
									<Node score="11.023664553973461">
										<SimplePredicate field="double(float(standardScaler(x4)))" operator="lessOrEqual" value="1.7840168579363138"/>
									</Node>
								</Node>
								<Node score="9.0">
									<SimplePredicate field="double(float(standardScaler(x7)))" operator="lessOrEqual" value="-0.02620191634132296"/>
									<Node score="9.207392357589622">
										<SimplePredicate field="double(float(standardScaler(x7)))" operator="lessOrEqual" value="-0.3925302567099276"/>
									</Node>
								</Node>
								<Node score="8.0">
									<SimplePredicate field="double(float(standardScaler(x5)))" operator="lessOrEqual" value="-1.8817489176836504"/>
								</Node>
							</Node>
							<Node score="7.0">
								<SimplePredicate field="double(float(standardScaler(x4)))" operator="lessOrEqual" value="-0.2888907232047667"/>
								<Node score="8.0">
									<SimplePredicate field="double(float(standardScaler(x2)))" operator="lessOrEqual" value="1.80041354930552"/>
								</Node>
							</Node>
							<Node score="8.0">
								<SimplePredicate field="double(float(standardScaler(x7)))" operator="lessOrEqual" value="1.9951431607068786"/>
							</Node>
						</Node>
						<Node score="6.0">
							<SimplePredicate field="double(float(standardScaler(x2)))" operator="lessOrEqual" value="0.4339686101553448"/>
							<Node score="7.0">
								<SimplePredicate field="double(float(standardScaler(x1)))" operator="lessOrEqual" value="0.26486134937697603"/>
								<Node score="7.0">
									<SimplePredicate field="double(float(standardScaler(x2)))" operator="lessOrEqual" value="-1.0708410172427842"/>
								</Node>
								<Node score="8.0">
									<SimplePredicate field="double(float(standardScaler(x6)))" operator="lessOrEqual" value="-0.4376333678907349"/>
									<Node score="9.207392357589622">
										<SimplePredicate field="double(float(standardScaler(x7)))" operator="lessOrEqual" value="0.1761986060140306"/>
									</Node>
								</Node>
							</Node>
							<Node score="7.0">
								<SimplePredicate field="double(float(standardScaler(x6)))" operator="lessOrEqual" value="0.6420312192800464"/>
								<Node score="8.0">
									<SimplePredicate field="double(float(standardScaler(x3)))" operator="lessOrEqual" value="2.0255185162519216"/>
								</Node>
							</Node>
						</Node>
						<Node score="6.0">
							<SimplePredicate field="double(float(standardScaler(x1)))" operator="lessOrEqual" value="-0.1992107341772138"/>
							<Node score="7.0">
								<SimplePredicate field="double(float(standardScaler(x2)))" operator="lessOrEqual" value="1.5050206819782965"/>
								<Node score="9.0">
									<SimplePredicate field="double(float(standardScaler(x6)))" operator="lessOrEqual" value="0.4267704877894254"/>
									<Node score="8.0">
										<SimplePredicate field="double(float(standardScaler(x1)))" operator="lessOrEqual" value="-1.295454455484735"/>
									</Node>
								</Node>
							</Node>
						</Node>
						<Node score="7.0">
							<SimplePredicate field="double(float(standardScaler(x1)))" operator="lessOrEqual" value="0.8870860888512335"/>
						</Node>
						<Node score="8.0">
							<SimplePredicate field="double(float(standardScaler(x3)))" operator="lessOrEqual" value="1.5964762252220701"/>
						</Node>
						<Node score="9.0">
							<SimplePredicate field="double(float(standardScaler(x1)))" operator="lessOrEqual" value="1.2186909204668588"/>
						</Node>
					</Node>
				</TreeModel>
			</Segment>
			<Segment id="5">
				<True/>
				<TreeModel functionName="regression" missingValueStrategy="nullPrediction" noTrueChildStrategy="returnLastPrediction">
					<MiningSchema>
						<MiningField name="double(float(standardScaler(x2)))"/>
						<MiningField name="double(float(standardScaler(x7)))"/>
						<MiningField name="double(float(standardScaler(x5)))"/>
						<MiningField name="double(float(standardScaler(x1)))"/>
						<MiningField name="double(float(standardScaler(x4)))"/>
						<MiningField name="double(float(standardScaler(x6)))"/>
						<MiningField name="double(float(standardScaler(x3)))"/>
					</MiningSchema>
					<Node score="6.0">
						<True/>
						<Node score="4.0">
							<SimplePredicate field="double(float(standardScaler(x1)))" operator="lessOrEqual" value="-0.5850410046367998"/>
							<Node score="5.0">
								<SimplePredicate field="double(float(standardScaler(x4)))" operator="lessOrEqual" value="2.0479083793029114"/>
								<Node score="4.0">
									<SimplePredicate field="double(float(standardScaler(x3)))" operator="lessOrEqual" value="-1.960318606831812"/>
								</Node>
								<Node score="8.0">
									<SimplePredicate field="double(float(standardScaler(x1)))" operator="lessOrEqual" value="-1.1921940630958956"/>
									<Node score="7.0">
										<SimplePredicate field="double(float(standardScaler(x2)))" operator="lessOrEqual" value="0.8266743593487753"/>
										<Node score="10.706640488004599">
											<SimplePredicate field="double(float(standardScaler(x6)))" operator="lessOrEqual" value="0.4262660225437802"/>
											<Node score="9.207392357589622">
												<SimplePredicate field="double(float(standardScaler(x1)))" operator="lessOrEqual" value="-1.6161310204418617"/>
												<Node score="9.0">
													<SimplePredicate field="double(float(standardScaler(x7)))" operator="lessOrEqual" value="-0.7765005159955273"/>
												</Node>
											</Node>
											<Node score="9.851655907139286">
												<SimplePredicate field="double(float(standardScaler(x3)))" operator="lessOrEqual" value="-0.2885989373314921"/>
											</Node>
										</Node>
										<Node score="11.023664553973461">
											<SimplePredicate field="double(float(standardScaler(x6)))" operator="lessOrEqual" value="1.5497236460016859"/>
											<Node score="9.0">
												<SimplePredicate field="double(float(standardScaler(x7)))" operator="lessOrEqual" value="-1.4533324410575093"/>
											</Node>
										</Node>
									</Node>
									<Node score="7.0">
										<SimplePredicate field="double(float(standardScaler(x3)))" operator="lessOrEqual" value="1.3454170826172624"/>
									</Node>
									<Node score="7.0">
										<SimplePredicate field="double(float(standardScaler(x5)))" operator="lessOrEqual" value="-0.6148864384285446"/>
									</Node>
								</Node>
								<Node score="9.207392357589622">
									<SimplePredicate field="double(float(standardScaler(x5)))" operator="lessOrEqual" value="1.9768573135196439"/>
									<Node score="11.941419697609339">
										<SimplePredicate field="double(float(standardScaler(x5)))" operator="lessOrEqual" value="0.7778694932682249"/>
										<Node score="11.296251627913692">
											<SimplePredicate field="double(float(standardScaler(x6)))" operator="lessOrEqual" value="-0.6611117801202547"/>
											<Node score="10.706640488004599">
												<SimplePredicate field="double(float(standardScaler(x5)))" operator="lessOrEqual" value="-0.2652333054293463"/>
											</Node>
										</Node>
										<Node score="11.023664553973461">
											<SimplePredicate field="double(float(standardScaler(x2)))" operator="lessOrEqual" value="0.04333343424604075"/>
										</Node>
									</Node>
									<Node score="9.0">
										<SimplePredicate field="double(float(standardScaler(x6)))" operator="lessOrEqual" value="-0.27976689423793655"/>
										<Node score="9.207392357589622">
											<SimplePredicate field="double(float(standardScaler(x7)))" operator="lessOrEqual" value="1.3669234542039623"/>
										</Node>
									</Node>
									<Node score="9.207392357589622">
										<SimplePredicate field="double(float(standardScaler(x5)))" operator="lessOrEqual" value="1.202919380304522"/>
									</Node>
								</Node>
							</Node>
							<Node score="5.0">
								<SimplePredicate field="double(float(standardScaler(x6)))" operator="lessOrEqual" value="0.8309728444582014"/>
								<Node score="5.0">
									<SimplePredicate field="double(float(standardScaler(x7)))" operator="lessOrEqual" value="-0.54922029770203"/>
									<Node score="6.0">
										<SimplePredicate field="double(float(standardScaler(x6)))" operator="lessOrEqual" value="-0.05949452547522316"/>
									</Node>
								</Node>
								<Node score="7.0">
									<SimplePredicate field="double(float(standardScaler(x1)))" operator="lessOrEqual" value="-1.158396150880973"/>
									<Node score="7.0">
										<SimplePredicate field="double(float(standardScaler(x4)))" operator="lessOrEqual" value="2.540022808064582"/>
										<Node score="8.0">
											<SimplePredicate field="double(float(standardScaler(x4)))" operator="lessOrEqual" value="2.3480897883035494"/>
										</Node>
									</Node>
								</Node>
							</Node>
						</Node>
						<Node score="5.0">
							<SimplePredicate field="double(float(standardScaler(x6)))" operator="lessOrEqual" value="1.9689201568877226"/>
							<Node score="6.0">
								<SimplePredicate field="double(float(standardScaler(x4)))" operator="lessOrEqual" value="1.4276299237269194"/>
								<Node score="7.0">
									<SimplePredicate field="double(float(standardScaler(x5)))" operator="lessOrEqual" value="1.4251507790686917"/>
									<Node score="9.207392357589622">
										<SimplePredicate field="double(float(standardScaler(x2)))" operator="lessOrEqual" value="2.3357467046292113"/>
										<Node score="12.427187187583282">
											<SimplePredicate field="double(float(standardScaler(x5)))" operator="lessOrEqual" value="1.294675552118381"/>
											<Node score="15.841872036349754">
												<SimplePredicate field="double(float(standardScaler(x4)))" operator="lessOrEqual" value="0.14862742307332377"/>
												<Node score="14.021342222159635">
													<SimplePredicate field="double(float(standardScaler(x2)))" operator="lessOrEqual" value="-0.6321033531435611"/>
												</Node>
											</Node>
											<Node score="11.941419697609339">
												<SimplePredicate field="double(float(standardScaler(x2)))" operator="lessOrEqual" value="-0.254372932012219"/>
											</Node>
										</Node>
										<Node score="7.0">
											<SimplePredicate field="double(float(standardScaler(x5)))" operator="lessOrEqual" value="1.3534412200287051"/>
										</Node>
										<Node score="9.0">
											<SimplePredicate field="double(float(standardScaler(x3)))" operator="lessOrEqual" value="-0.7884245323847128"/>
										</Node>
									</Node>
									<Node score="6.0">
										<SimplePredicate field="double(float(standardScaler(x6)))" operator="lessOrEqual" value="0.27081943528611024"/>
									</Node>
								</Node>
								<Node score="7.0">
									<SimplePredicate field="double(float(standardScaler(x1)))" operator="lessOrEqual" value="0.8443355209543331"/>
									<Node score="6.0">
										<SimplePredicate field="double(float(standardScaler(x2)))" operator="lessOrEqual" value="-1.111312548243835"/>
									</Node>
									<Node score="9.207392357589622">
										<SimplePredicate field="double(float(standardScaler(x6)))" operator="lessOrEqual" value="0.8154227651505213"/>
										<Node score="9.0">
											<SimplePredicate field="double(float(standardScaler(x7)))" operator="lessOrEqual" value="-1.4174961458558677"/>
										</Node>
									</Node>
								</Node>
								<Node score="7.0">
									<SimplePredicate field="double(float(standardScaler(x5)))" operator="lessOrEqual" value="1.9533573487165812"/>
									<Node score="8.0">
										<SimplePredicate field="double(float(standardScaler(x4)))" operator="lessOrEqual" value="-0.7448690392419726"/>
										<Node score="9.851655907139286">
											<SimplePredicate field="double(float(standardScaler(x2)))" operator="lessOrEqual" value="2.193822498497245"/>
										</Node>
									</Node>
								</Node>
							</Node>
							<Node score="4.0">
								<SimplePredicate field="double(float(standardScaler(x7)))" operator="lessOrEqual" value="-0.6844478047363756"/>
							</Node>
						</Node>
						<Node score="3.0">
							<SimplePredicate field="double(float(standardScaler(x2)))" operator="lessOrEqual" value="-0.6780731468509221"/>
						</Node>
						<Node score="5.0">
							<SimplePredicate field="double(float(standardScaler(x6)))" operator="lessOrEqual" value="2.73104633571487"/>
							<Node score="6.0">
								<SimplePredicate field="double(float(standardScaler(x6)))" operator="lessOrEqual" value="2.716387589521469"/>
								<Node score="8.0">
									<SimplePredicate field="double(float(standardScaler(x3)))" operator="lessOrEqual" value="1.2358367204997085"/>
									<Node score="7.0">
										<SimplePredicate field="double(float(standardScaler(x2)))" operator="lessOrEqual" value="0.8658069681089442"/>
									</Node>
								</Node>
							</Node>
						</Node>
						<Node score="5.0">
							<SimplePredicate field="double(float(standardScaler(x7)))" operator="lessOrEqual" value="0.9602936885316358"/>
						</Node>
						<Node score="7.0">
							<SimplePredicate field="double(float(standardScaler(x5)))" operator="lessOrEqual" value="0.02993602370058246"/>
						</Node>
					</Node>
				</TreeModel>
			</Segment>
			<Segment id="6">
				<True/>
				<TreeModel functionName="regression" missingValueStrategy="nullPrediction" noTrueChildStrategy="returnLastPrediction">
					<MiningSchema>
						<MiningField name="double(float(standardScaler(x2)))"/>
						<MiningField name="double(float(standardScaler(x7)))"/>
						<MiningField name="double(float(standardScaler(x5)))"/>
						<MiningField name="double(float(standardScaler(x1)))"/>
						<MiningField name="double(float(standardScaler(x4)))"/>
						<MiningField name="double(float(standardScaler(x6)))"/>
						<MiningField name="double(float(standardScaler(x3)))"/>
					</MiningSchema>
					<Node score="8.0">
						<True/>
						<Node score="6.0">
							<SimplePredicate field="double(float(standardScaler(x7)))" operator="lessOrEqual" value="0.9079532885599404"/>
							<Node score="5.0">
								<SimplePredicate field="double(float(standardScaler(x6)))" operator="lessOrEqual" value="-0.8807659633205585"/>
								<Node score="5.0">
									<SimplePredicate field="double(float(standardScaler(x1)))" operator="lessOrEqual" value="1.3469380260966886"/>
									<Node score="10.706640488004599">
										<SimplePredicate field="double(float(standardScaler(x7)))" operator="lessOrEqual" value="0.8524575048164649"/>
										<Node score="8.0">
											<SimplePredicate field="double(float(standardScaler(x1)))" operator="lessOrEqual" value="-1.387181940252229"/>
											<Node score="7.0">
												<SimplePredicate field="double(float(standardScaler(x3)))" operator="lessOrEqual" value="-1.3766926265263228"/>
											</Node>
											<Node score="8.0">
												<SimplePredicate field="double(float(standardScaler(x1)))" operator="lessOrEqual" value="-1.4621052073336935"/>
												<Node score="9.0">
													<SimplePredicate field="double(float(standardScaler(x7)))" operator="lessOrEqual" value="0.10844741841625649"/>
												</Node>
											</Node>
										</Node>
										<Node score="8.0">
											<SimplePredicate field="double(float(standardScaler(x7)))" operator="lessOrEqual" value="-1.556360170813928"/>
											<Node score="7.0">
												<SimplePredicate field="double(float(standardScaler(x3)))" operator="lessOrEqual" value="1.1729985902174507"/>
											</Node>
										</Node>
										<Node score="11.941419697609339">
											<SimplePredicate field="double(float(standardScaler(x3)))" operator="lessOrEqual" value="-0.33758851026387826"/>
											<Node score="8.0">
												<SimplePredicate field="double(float(standardScaler(x3)))" operator="lessOrEqual" value="-1.9178329810723866"/>
											</Node>
										</Node>
										<Node score="11.296251627913692">
											<SimplePredicate field="double(float(standardScaler(x5)))" operator="lessOrEqual" value="0.5632659699701095"/>
										</Node>
									</Node>
									<Node score="6.0">
										<SimplePredicate field="double(float(standardScaler(x1)))" operator="lessOrEqual" value="-0.4851650524027391"/>
									</Node>
								</Node>
								<Node score="6.0">
									<SimplePredicate field="double(float(standardScaler(x6)))" operator="lessOrEqual" value="-0.9368844685297845"/>
									<Node score="6.0">
										<SimplePredicate field="double(float(standardScaler(x2)))" operator="lessOrEqual" value="-0.07640873922741354"/>
									</Node>
								</Node>
							</Node>
							<Node score="9.0">
								<SimplePredicate field="double(float(standardScaler(x1)))" operator="lessOrEqual" value="1.1587100693427912"/>
								<Node score="7.0">
									<SimplePredicate field="double(float(standardScaler(x3)))" operator="lessOrEqual" value="-0.11374003566083246"/>
									<Node score="6.0">
										<SimplePredicate field="double(float(standardScaler(x3)))" operator="lessOrEqual" value="-0.9101543736919742"/>
										<Node score="8.0">
											<SimplePredicate field="double(float(standardScaler(x4)))" operator="lessOrEqual" value="2.3065658821925723"/>
											<Node score="11.023664553973461">
												<SimplePredicate field="double(float(standardScaler(x2)))" operator="lessOrEqual" value="-0.6659911973608339"/>
												<Node score="11.941419697609339">
													<SimplePredicate field="double(float(standardScaler(x3)))" operator="lessOrEqual" value="-1.0801413014644021"/>
												</Node>
											</Node>
											<Node score="12.427187187583282">
												<SimplePredicate field="double(float(standardScaler(x7)))" operator="lessOrEqual" value="0.5703283748516181"/>
											</Node>
										</Node>
									</Node>
									<Node score="8.0">
										<SimplePredicate field="double(float(standardScaler(x5)))" operator="lessOrEqual" value="2.0066276714081295"/>
										<Node score="13.590538990498956">
											<SimplePredicate field="double(float(standardScaler(x4)))" operator="lessOrEqual" value="1.6109589579731058"/>
											<Node score="9.207392357589622">
												<SimplePredicate field="double(float(standardScaler(x3)))" operator="lessOrEqual" value="-0.6921004593580142"/>
											</Node>
										</Node>
										<Node score="9.207392357589622">
											<SimplePredicate field="double(float(standardScaler(x2)))" operator="lessOrEqual" value="0.22603172825073736"/>
										</Node>
									</Node>
								</Node>
								<Node score="5.0">
									<SimplePredicate field="double(float(standardScaler(x2)))" operator="lessOrEqual" value="-1.6071862405140693"/>
								</Node>
								<Node score="7.0">
									<SimplePredicate field="double(float(standardScaler(x7)))" operator="lessOrEqual" value="-2.054161586335935"/>
								</Node>
								<Node score="11.748880484475505">
									<SimplePredicate field="double(float(standardScaler(x3)))" operator="lessOrEqual" value="2.1674318847588228"/>
									<Node score="15.30921565598065">
										<SimplePredicate field="double(float(standardScaler(x1)))" operator="lessOrEqual" value="0.7799533685050273"/>
									</Node>
								</Node>
								<Node score="8.0">
									<SimplePredicate field="double(float(standardScaler(x5)))" operator="lessOrEqual" value="1.2590176709708443"/>
								</Node>
							</Node>
							<Node score="7.0">
								<SimplePredicate field="double(float(standardScaler(x4)))" operator="lessOrEqual" value="-1.3045968366681588"/>
								<Node score="6.0">
									<SimplePredicate field="double(float(standardScaler(x5)))" operator="lessOrEqual" value="-0.03785391134239946"/>
									<Node score="7.0">
										<SimplePredicate field="double(float(standardScaler(x7)))" operator="lessOrEqual" value="-0.4038598601413236"/>
									</Node>
								</Node>
								<Node score="7.0">
									<SimplePredicate field="double(float(standardScaler(x4)))" operator="lessOrEqual" value="-1.5099103560444378"/>
								</Node>
								<Node score="8.0">
									<SimplePredicate field="double(float(standardScaler(x2)))" operator="lessOrEqual" value="-0.31550716160624814"/>
								</Node>
							</Node>
							<Node score="6.0">
								<SimplePredicate field="double(float(standardScaler(x5)))" operator="lessOrEqual" value="-1.1936715187604363"/>
							</Node>
							<Node score="8.0">
								<SimplePredicate field="double(float(standardScaler(x5)))" operator="lessOrEqual" value="1.697677685636441"/>
								<Node score="9.0">
									<SimplePredicate field="double(float(standardScaler(x3)))" operator="lessOrEqual" value="1.2905587097731632"/>
									<Node score="12.695531732007485">
										<SimplePredicate field="double(float(standardScaler(x5)))" operator="lessOrEqual" value="1.0241923557526684"/>
									</Node>
								</Node>
							</Node>
						</Node>
						<Node score="5.0">
							<SimplePredicate field="double(float(standardScaler(x1)))" operator="lessOrEqual" value="-0.527846676258202"/>
							<Node score="4.0">
								<SimplePredicate field="double(float(standardScaler(x2)))" operator="lessOrEqual" value="-1.1593323583428967"/>
							</Node>
							<Node score="6.0">
								<SimplePredicate field="double(float(standardScaler(x6)))" operator="lessOrEqual" value="1.2549768827019507"/>
								<Node score="6.0">
									<SimplePredicate field="double(float(standardScaler(x2)))" operator="lessOrEqual" value="0.09681633212744845"/>
									<Node score="8.0">
										<SimplePredicate field="double(float(standardScaler(x6)))" operator="lessOrEqual" value="-0.06824137867660307"/>
										<Node score="7.0">
											<SimplePredicate field="double(float(standardScaler(x6)))" operator="lessOrEqual" value="-0.5725697969878236"/>
										</Node>
									</Node>
								</Node>
								<Node score="7.0">
									<SimplePredicate field="double(float(standardScaler(x5)))" operator="lessOrEqual" value="0.10440365002236185"/>
								</Node>
							</Node>
						</Node>
						<Node score="5.0">
							<SimplePredicate field="double(float(standardScaler(x4)))" operator="lessOrEqual" value="-1.5366012264186057"/>
							<Node score="4.0">
								<SimplePredicate field="double(float(standardScaler(x2)))" operator="lessOrEqual" value="-1.1181287502230193"/>
							</Node>
						</Node>
						<Node score="4.0">
							<SimplePredicate field="double(float(standardScaler(x5)))" operator="lessOrEqual" value="-1.6983842672056257"/>
						</Node>
						<Node score="7.0">
							<SimplePredicate field="double(float(standardScaler(x3)))" operator="lessOrEqual" value="1.0792356249604134"/>
							<Node score="7.0">
								<SimplePredicate field="double(float(standardScaler(x7)))" operator="lessOrEqual" value="1.5132290609077161"/>
								<Node score="9.851655907139286">
									<SimplePredicate field="double(float(standardScaler(x7)))" operator="lessOrEqual" value="1.2876670389431442"/>
									<Node score="9.851655907139286">
										<SimplePredicate field="double(float(standardScaler(x3)))" operator="lessOrEqual" value="0.08966324307955076"/>
									</Node>
								</Node>
							</Node>
							<Node score="10.327020052042847">
								<SimplePredicate field="double(float(standardScaler(x7)))" operator="lessOrEqual" value="2.3681834586055666"/>
								<Node score="8.0">
									<SimplePredicate field="double(float(standardScaler(x5)))" operator="lessOrEqual" value="-0.1664763730952764"/>
								</Node>
							</Node>
						</Node>
						<Node score="7.0">
							<SimplePredicate field="double(float(standardScaler(x3)))" operator="lessOrEqual" value="1.3499367051909188"/>
						</Node>
						<Node score="7.0">
							<SimplePredicate field="double(float(standardScaler(x5)))" operator="lessOrEqual" value="-1.5857804327138856"/>
						</Node>
						<Node score="9.0">
							<SimplePredicate field="double(float(standardScaler(x4)))" operator="lessOrEqual" value="-0.7102005572444847"/>
						</Node>
					</Node>
				</TreeModel>
			</Segment>
			<Segment id="7">
				<True/>
				<TreeModel functionName="regression" missingValueStrategy="nullPrediction" noTrueChildStrategy="returnLastPrediction">
					<MiningSchema>
						<MiningField name="double(float(standardScaler(x2)))"/>
						<MiningField name="double(float(standardScaler(x7)))"/>
						<MiningField name="double(float(standardScaler(x5)))"/>
						<MiningField name="double(float(standardScaler(x1)))"/>
						<MiningField name="double(float(standardScaler(x4)))"/>
						<MiningField name="double(float(standardScaler(x6)))"/>
						<MiningField name="double(float(standardScaler(x3)))"/>
					</MiningSchema>
					<Node score="4.0">
						<True/>
						<Node score="4.0">
							<SimplePredicate field="double(float(standardScaler(x6)))" operator="lessOrEqual" value="-1.0199316474878806"/>
							<Node score="9.207392357589622">
								<SimplePredicate field="double(float(standardScaler(x4)))" operator="lessOrEqual" value="0.1936238410382376"/>
								<Node score="4.0">
									<SimplePredicate field="double(float(standardScaler(x1)))" operator="lessOrEqual" value="-1.5656868956207393"/>
								</Node>
								<Node score="6.0">
									<SimplePredicate field="double(float(standardScaler(x2)))" operator="lessOrEqual" value="-1.4366409060791583"/>
									<Node score="7.0">
										<SimplePredicate field="double(float(standardScaler(x4)))" operator="lessOrEqual" value="-0.7642973331472904"/>
										<Node score="6.0">
											<SimplePredicate field="double(float(standardScaler(x7)))" operator="lessOrEqual" value="-0.09688295291357912"/>
										</Node>
									</Node>
								</Node>
								<Node score="7.0">
									<SimplePredicate field="double(float(standardScaler(x6)))" operator="lessOrEqual" value="-1.2180356116061755"/>
									<Node score="6.0">
										<SimplePredicate field="double(float(standardScaler(x1)))" operator="lessOrEqual" value="-0.08671400491452785"/>
									</Node>
									<Node score="8.0">
										<SimplePredicate field="double(float(standardScaler(x5)))" operator="lessOrEqual" value="0.20334972834752718"/>
									</Node>
								</Node>
								<Node score="6.0">
									<SimplePredicate field="double(float(standardScaler(x3)))" operator="lessOrEqual" value="-1.2776241000883641"/>
								</Node>
								<Node score="9.0">
									<SimplePredicate field="double(float(standardScaler(x4)))" operator="lessOrEqual" value="-0.28403052376134597"/>
									<Node score="9.0">
										<SimplePredicate field="double(float(standardScaler(x1)))" operator="lessOrEqual" value="0.3850877263040273"/>
									</Node>
								</Node>
								<Node score="8.0">
									<SimplePredicate field="double(float(standardScaler(x7)))" operator="lessOrEqual" value="0.49634090491187033"/>
								</Node>
							</Node>
							<Node score="5.0">
								<SimplePredicate field="double(float(standardScaler(x4)))" operator="lessOrEqual" value="0.8024607855732253"/>
								<Node score="4.0">
									<SimplePredicate field="double(float(standardScaler(x6)))" operator="lessOrEqual" value="-1.08075533061372"/>
								</Node>
							</Node>
							<Node score="6.0">
								<SimplePredicate field="double(float(standardScaler(x1)))" operator="lessOrEqual" value="-0.34788349689501596"/>
								<Node score="5.0">
									<SimplePredicate field="double(float(standardScaler(x1)))" operator="lessOrEqual" value="-1.1023640632125575"/>
								</Node>
								<Node score="7.0">
									<SimplePredicate field="double(float(standardScaler(x7)))" operator="lessOrEqual" value="0.47965091614582606"/>
								</Node>
							</Node>
						</Node>
						<Node score="3.0">
							<SimplePredicate field="double(float(standardScaler(x2)))" operator="lessOrEqual" value="-1.884662453334862"/>
						</Node>
						<Node score="10.327020052042847">
							<SimplePredicate field="double(float(standardScaler(x5)))" operator="lessOrEqual" value="2.126861168556948"/>
							<Node score="8.0">
								<SimplePredicate field="double(float(standardScaler(x6)))" operator="lessOrEqual" value="-0.8544647733831479"/>
								<Node score="6.0">
									<SimplePredicate field="double(float(standardScaler(x6)))" operator="lessOrEqual" value="-1.014321019236385"/>
									<Node score="7.0">
										<SimplePredicate field="double(float(standardScaler(x4)))" operator="lessOrEqual" value="1.499511671241344"/>
										<Node score="8.0">
											<SimplePredicate field="double(float(standardScaler(x2)))" operator="lessOrEqual" value="0.13769019027211837"/>
										</Node>
									</Node>
								</Node>
								<Node score="11.023664553973461">
									<SimplePredicate field="double(float(standardScaler(x3)))" operator="lessOrEqual" value="0.35332088172234655"/>
									<Node score="7.0">
										<SimplePredicate field="double(float(standardScaler(x3)))" operator="lessOrEqual" value="-1.522441181415031"/>
									</Node>
									<Node score="9.0">
										<SimplePredicate field="double(float(standardScaler(x7)))" operator="lessOrEqual" value="-1.1033116404237542"/>
									</Node>
								</Node>
								<Node score="7.0">
									<SimplePredicate field="double(float(standardScaler(x5)))" operator="lessOrEqual" value="-0.060488556319734904"/>
								</Node>
							</Node>
							<Node score="7.0">
								<SimplePredicate field="double(float(standardScaler(x7)))" operator="lessOrEqual" value="-0.394825977042081"/>
								<Node score="8.0">
									<SimplePredicate field="double(float(standardScaler(x4)))" operator="lessOrEqual" value="-1.5405920646265558"/>
									<Node score="7.0">
										<SimplePredicate field="double(float(standardScaler(x4)))" operator="lessOrEqual" value="-1.7120706954960603"/>
									</Node>
									<Node score="9.851655907139286">
										<SimplePredicate field="double(float(standardScaler(x6)))" operator="lessOrEqual" value="0.41708846563770796"/>
									</Node>
								</Node>
								<Node score="13.817533633240295">
									<SimplePredicate field="double(float(standardScaler(x3)))" operator="lessOrEqual" value="2.6303005626363776"/>
									<Node score="15.056544133713256">
										<SimplePredicate field="double(float(standardScaler(x2)))" operator="lessOrEqual" value="0.3415317870789756"/>
									</Node>
								</Node>
							</Node>
							<Node score="12.695531732007485">
								<SimplePredicate field="double(float(standardScaler(x7)))" operator="lessOrEqual" value="1.5693488259450659"/>
								<Node score="14.629194510830729">
									<SimplePredicate field="double(float(standardScaler(x6)))" operator="lessOrEqual" value="1.0180498104029654"/>
									<Node score="14.937649678149459">
										<SimplePredicate field="double(float(standardScaler(x1)))" operator="lessOrEqual" value="0.3567288849078456"/>
									</Node>
								</Node>
								<Node score="9.851655907139286">
									<SimplePredicate field="double(float(standardScaler(x3)))" operator="lessOrEqual" value="-0.2864021375573216"/>
								</Node>
							</Node>
							<Node score="8.0">
								<SimplePredicate field="double(float(standardScaler(x4)))" operator="lessOrEqual" value="-0.9154633660713263"/>
							</Node>
							<Node score="8.0">
								<SimplePredicate field="double(float(standardScaler(x6)))" operator="lessOrEqual" value="-0.5386317210985084"/>
							</Node>
						</Node>
						<Node score="5.0">
							<SimplePredicate field="double(float(standardScaler(x2)))" operator="lessOrEqual" value="-0.7182388677236722"/>
						</Node>
					</Node>
				</TreeModel>
			</Segment>
			<Segment id="8">
				<True/>
				<TreeModel functionName="regression" missingValueStrategy="nullPrediction" noTrueChildStrategy="returnLastPrediction">
					<MiningSchema>
						<MiningField name="double(float(standardScaler(x2)))"/>
						<MiningField name="double(float(standardScaler(x7)))"/>
						<MiningField name="double(float(standardScaler(x5)))"/>
						<MiningField name="double(float(standardScaler(x1)))"/>
						<MiningField name="double(float(standardScaler(x4)))"/>
						<MiningField name="double(float(standardScaler(x6)))"/>
						<MiningField name="double(float(standardScaler(x3)))"/>
					</MiningSchema>
					<Node score="3.0">
						<True/>
						<Node score="4.0">
							<SimplePredicate field="double(float(standardScaler(x6)))" operator="lessOrEqual" value="0.8958961515763204"/>
							<Node score="6.0">
								<SimplePredicate field="double(float(standardScaler(x6)))" operator="lessOrEqual" value="-0.5147823052076035"/>
								<Node score="4.0">
									<SimplePredicate field="double(float(standardScaler(x3)))" operator="lessOrEqual" value="-1.997544370633387"/>
								</Node>
								<Node score="6.0">
									<SimplePredicate field="double(float(standardScaler(x1)))" operator="lessOrEqual" value="1.228755343150866"/>
									<Node score="9.0">
										<SimplePredicate field="double(float(standardScaler(x1)))" operator="lessOrEqual" value="-1.431374735933228"/>
										<Node score="9.207392357589622">
											<SimplePredicate field="double(float(standardScaler(x2)))" operator="lessOrEqual" value="-0.5465122769529653"/>
											<Node score="8.0">
												<SimplePredicate field="double(float(standardScaler(x5)))" operator="lessOrEqual" value="0.429734528780791"/>
											</Node>
											<Node score="8.0">
												<SimplePredicate field="double(float(standardScaler(x1)))" operator="lessOrEqual" value="-1.525332441998257"/>
											</Node>
										</Node>
										<Node score="8.0">
											<SimplePredicate field="double(float(standardScaler(x1)))" operator="lessOrEqual" value="-1.5677627763028097"/>
											<Node score="9.0">
												<SimplePredicate field="double(float(standardScaler(x3)))" operator="lessOrEqual" value="0.6009513430451526"/>
											</Node>
										</Node>
										<Node score="9.0">
											<SimplePredicate field="double(float(standardScaler(x6)))" operator="lessOrEqual" value="-0.833061413243997"/>
										</Node>
									</Node>
									<Node score="11.296251627913692">
										<SimplePredicate field="double(float(standardScaler(x3)))" operator="lessOrEqual" value="2.074700742347475"/>
										<Node score="15.056544133713256">
											<SimplePredicate field="double(float(standardScaler(x6)))" operator="lessOrEqual" value="-0.5815203986781935"/>
											<Node score="10.706640488004599">
												<SimplePredicate field="double(float(standardScaler(x2)))" operator="lessOrEqual" value="-1.637976617517589"/>
											</Node>
										</Node>
										<Node score="8.0">
											<SimplePredicate field="double(float(standardScaler(x7)))" operator="lessOrEqual" value="-0.5685804801277007"/>
										</Node>
									</Node>
								</Node>
								<Node score="6.0">
									<SimplePredicate field="double(float(standardScaler(x2)))" operator="lessOrEqual" value="-1.9051424618670747"/>
								</Node>
								<Node score="9.851655907139286">
									<SimplePredicate field="double(float(standardScaler(x2)))" operator="lessOrEqual" value="1.4959671875014333"/>
									<Node score="9.207392357589622">
										<SimplePredicate field="double(float(standardScaler(x5)))" operator="lessOrEqual" value="-0.6163282335411884"/>
										<Node score="8.0">
											<SimplePredicate field="double(float(standardScaler(x7)))" operator="lessOrEqual" value="-0.6840955664727704"/>
										</Node>
									</Node>
									<Node score="9.0">
										<SimplePredicate field="double(float(standardScaler(x4)))" operator="lessOrEqual" value="-1.4180618542055357"/>
									</Node>
								</Node>
							</Node>
							<Node score="10.327020052042847">
								<SimplePredicate field="double(float(standardScaler(x1)))" operator="lessOrEqual" value="1.3199957017311483"/>
								<Node score="6.0">
									<SimplePredicate field="double(float(standardScaler(x2)))" operator="lessOrEqual" value="-1.367444243538543"/>
									<Node score="5.0">
										<SimplePredicate field="double(float(standardScaler(x4)))" operator="lessOrEqual" value="-0.7908184747496929"/>
									</Node>
								</Node>
								<Node score="9.0">
									<SimplePredicate field="double(float(standardScaler(x1)))" operator="lessOrEqual" value="0.8267152665945652"/>
									<Node score="8.0">
										<SimplePredicate field="double(float(standardScaler(x7)))" operator="lessOrEqual" value="-1.876571451238716"/>
										<Node score="8.0">
											<SimplePredicate field="double(float(standardScaler(x4)))" operator="lessOrEqual" value="0.1107834161876256"/>
										</Node>
									</Node>
									<Node score="12.427187187583282">
										<SimplePredicate field="double(float(standardScaler(x4)))" operator="lessOrEqual" value="2.283492086003969"/>
										<Node score="15.53350889989737">
											<SimplePredicate field="double(float(standardScaler(x7)))" operator="lessOrEqual" value="0.8930019510529146"/>
										</Node>
									</Node>
									<Node score="8.0">
										<SimplePredicate field="double(float(standardScaler(x5)))" operator="lessOrEqual" value="0.03601350015819016"/>
									</Node>
								</Node>
								<Node score="7.0">
									<SimplePredicate field="double(float(standardScaler(x5)))" operator="lessOrEqual" value="-1.8374720860445417"/>
								</Node>
								<Node score="11.296251627913692">
									<SimplePredicate field="double(float(standardScaler(x2)))" operator="lessOrEqual" value="-0.09800474834509543"/>
									<Node score="9.0">
										<SimplePredicate field="double(float(standardScaler(x1)))" operator="lessOrEqual" value="0.9108464152775058"/>
									</Node>
								</Node>
								<Node score="10.706640488004599">
									<SimplePredicate field="double(float(standardScaler(x5)))" operator="lessOrEqual" value="-0.6175460918158234"/>
								</Node>
							</Node>
							<Node score="6.0">
								<SimplePredicate field="double(float(standardScaler(x3)))" operator="lessOrEqual" value="1.3105483977634007"/>
								<Node score="8.0">
									<SimplePredicate field="double(float(standardScaler(x5)))" operator="lessOrEqual" value="0.3334305334622747"/>
									<Node score="8.0">
										<SimplePredicate field="double(float(standardScaler(x5)))" operator="lessOrEqual" value="-0.5329132017285931"/>
										<Node score="7.0">
											<SimplePredicate field="double(float(standardScaler(x3)))" operator="lessOrEqual" value="-0.6618754452811098"/>
										</Node>
									</Node>
									<Node score="7.0">
										<SimplePredicate field="double(float(standardScaler(x2)))" operator="lessOrEqual" value="-0.13478469465840803"/>
									</Node>
									<Node score="9.0">
										<SimplePredicate field="double(float(standardScaler(x5)))" operator="lessOrEqual" value="-0.18694668972267056"/>
									</Node>
								</Node>
							</Node>
						</Node>
						<Node score="3.0">
							<SimplePredicate field="double(float(standardScaler(x1)))" operator="lessOrEqual" value="-1.0181471246016733"/>
							<Node score="5.0">
								<SimplePredicate field="double(float(standardScaler(x5)))" operator="lessOrEqual" value="0.5128541909651765"/>
								<Node score="4.0">
									<SimplePredicate field="double(float(standardScaler(x4)))" operator="lessOrEqual" value="0.38006986234859175"/>
								</Node>
							</Node>
						</Node>
						<Node score="8.0">
							<SimplePredicate field="double(float(standardScaler(x6)))" operator="lessOrEqual" value="4.637356448013227"/>
							<Node score="5.0">
								<SimplePredicate field="double(float(standardScaler(x3)))" operator="lessOrEqual" value="0.06429174020107586"/>
								<Node score="9.0">
									<SimplePredicate field="double(float(standardScaler(x4)))" operator="lessOrEqual" value="1.997344291548556"/>
									<Node score="7.0">
										<SimplePredicate field="double(float(standardScaler(x4)))" operator="lessOrEqual" value="-0.1709847410406522"/>
										<Node score="10.706640488004599">
											<SimplePredicate field="double(float(standardScaler(x1)))" operator="lessOrEqual" value="1.5455066352528912"/>
											<Node score="8.0">
												<SimplePredicate field="double(float(standardScaler(x3)))" operator="lessOrEqual" value="-1.1267545279638347"/>
											</Node>
										</Node>
									</Node>
									<Node score="9.207392357589622">
										<SimplePredicate field="double(float(standardScaler(x6)))" operator="lessOrEqual" value="1.6556218585871865"/>
										<Node score="8.0">
											<SimplePredicate field="double(float(standardScaler(x2)))" operator="lessOrEqual" value="-0.7553235353879293"/>
										</Node>
									</Node>
									<Node score="9.0">
										<SimplePredicate field="double(float(standardScaler(x4)))" operator="lessOrEqual" value="0.8572417350305879"/>
									</Node>
								</Node>
							</Node>
							<Node score="9.0">
								<SimplePredicate field="double(float(standardScaler(x3)))" operator="lessOrEqual" value="0.9532451511081745"/>
								<Node score="8.0">
									<SimplePredicate field="double(float(standardScaler(x4)))" operator="lessOrEqual" value="-0.4164155993567966"/>
									<Node score="8.0">
										<SimplePredicate field="double(float(standardScaler(x3)))" operator="lessOrEqual" value="0.3210078918035425"/>
									</Node>
								</Node>
								<Node score="8.0">
									<SimplePredicate field="double(float(standardScaler(x4)))" operator="lessOrEqual" value="-0.13289700918466363"/>
								</Node>
								<Node score="9.0">
									<SimplePredicate field="double(float(standardScaler(x6)))" operator="lessOrEqual" value="1.8681296448495495"/>
								</Node>
							</Node>
							<Node score="6.0">
								<SimplePredicate field="double(float(standardScaler(x1)))" operator="lessOrEqual" value="-0.19053475539889456"/>
							</Node>
							<Node score="8.0">
								<SimplePredicate field="double(float(standardScaler(x1)))" operator="lessOrEqual" value="0.7354182753754125"/>
							</Node>
						</Node>
					</Node>
				</TreeModel>
			</Segment>
			<Segment id="9">
				<True/>
				<TreeModel functionName="regression" missingValueStrategy="nullPrediction" noTrueChildStrategy="returnLastPrediction">
					<MiningSchema>
						<MiningField name="double(float(standardScaler(x2)))"/>
						<MiningField name="double(float(standardScaler(x7)))"/>
						<MiningField name="double(float(standardScaler(x5)))"/>
						<MiningField name="double(float(standardScaler(x1)))"/>
						<MiningField name="double(float(standardScaler(x4)))"/>
						<MiningField name="double(float(standardScaler(x6)))"/>
						<MiningField name="double(float(standardScaler(x3)))"/>
					</MiningSchema>
					<Node score="8.0">
						<True/>
						<Node score="2.0">
							<SimplePredicate field="double(float(standardScaler(x7)))" operator="lessOrEqual" value="-2.740960419726605"/>
						</Node>
						<Node score="5.0">
							<SimplePredicate field="double(float(standardScaler(x4)))" operator="lessOrEqual" value="-1.8145083104507969"/>
							<Node score="4.0">
								<SimplePredicate field="double(float(standardScaler(x2)))" operator="lessOrEqual" value="-0.2990209143728316"/>
							</Node>
							<Node score="4.0">
								<SimplePredicate field="double(float(standardScaler(x3)))" operator="lessOrEqual" value="-0.8158912766639277"/>
							</Node>
						</Node>
						<Node score="6.0">
							<SimplePredicate field="double(float(standardScaler(x5)))" operator="lessOrEqual" value="-1.458830184641296"/>
							<Node score="4.0">
								<SimplePredicate field="double(float(standardScaler(x4)))" operator="lessOrEqual" value="-1.2535515829040131"/>
							</Node>
							<Node score="5.0">
								<SimplePredicate field="double(float(standardScaler(x7)))" operator="lessOrEqual" value="-1.503934057492708"/>
							</Node>
							<Node score="9.0">
								<SimplePredicate field="double(float(standardScaler(x6)))" operator="lessOrEqual" value="3.1820552975254346"/>
								<Node score="10.327020052042847">
									<SimplePredicate field="double(float(standardScaler(x7)))" operator="lessOrEqual" value="0.5890987303624542"/>
									<Node score="9.851655907139286">
										<SimplePredicate field="double(float(standardScaler(x7)))" operator="lessOrEqual" value="0.0647120257694096"/>
									</Node>
								</Node>
								<Node score="9.207392357589622">
									<SimplePredicate field="double(float(standardScaler(x1)))" operator="lessOrEqual" value="1.0276874092225778"/>
								</Node>
							</Node>
						</Node>
						<Node score="5.0">
							<SimplePredicate field="double(float(standardScaler(x1)))" operator="lessOrEqual" value="-1.5314474354379022"/>
							<Node score="10.327020052042847">
								<SimplePredicate field="double(float(standardScaler(x6)))" operator="lessOrEqual" value="3.3090050398545117"/>
								<Node score="9.207392357589622">
									<SimplePredicate field="double(float(standardScaler(x1)))" operator="lessOrEqual" value="-1.6860584584259002"/>
									<Node score="8.0">
										<SimplePredicate field="double(float(standardScaler(x3)))" operator="lessOrEqual" value="-0.2972818102927421"/>
										<Node score="9.0">
											<SimplePredicate field="double(float(standardScaler(x4)))" operator="lessOrEqual" value="1.6422600379067664"/>
										</Node>
									</Node>
									<Node score="8.0">
										<SimplePredicate field="double(float(standardScaler(x3)))" operator="lessOrEqual" value="0.9176758151294973"/>
									</Node>
								</Node>
								<Node score="7.0">
									<SimplePredicate field="double(float(standardScaler(x7)))" operator="lessOrEqual" value="-0.9397421712605412"/>
								</Node>
								<Node score="9.0">
									<SimplePredicate field="double(float(standardScaler(x1)))" operator="lessOrEqual" value="-1.6032711763895304"/>
								</Node>
							</Node>
						</Node>
						<Node score="11.53553663538496">
							<SimplePredicate field="double(float(standardScaler(x1)))" operator="lessOrEqual" value="0.26142348142353766"/>
							<Node score="9.851655907139286">
								<SimplePredicate field="double(float(standardScaler(x3)))" operator="lessOrEqual" value="-1.583686506103368"/>
								<Node score="9.0">
									<SimplePredicate field="double(float(standardScaler(x5)))" operator="lessOrEqual" value="-0.3669960108454995"/>
									<Node score="8.0">
										<SimplePredicate field="double(float(standardScaler(x4)))" operator="lessOrEqual" value="1.079623772454129"/>
									</Node>
								</Node>
								<Node score="9.0">
									<SimplePredicate field="double(float(standardScaler(x7)))" operator="lessOrEqual" value="-0.07514387561253066"/>
								</Node>
							</Node>
							<Node score="11.296251627913692">
								<SimplePredicate field="double(float(standardScaler(x6)))" operator="lessOrEqual" value="0.6107630262264587"/>
								<Node score="15.622432247401656">
									<SimplePredicate field="double(float(standardScaler(x5)))" operator="lessOrEqual" value="1.1341386462833905"/>
								</Node>
							</Node>
